/*
 * Copyright (c) 2026 EdgeImpulse Inc.
 *
 * Generated by Edge Impulse and licensed under the applicable Edge Impulse
 * Terms of Service. Community and Professional Terms of Service
 * (https://edgeimpulse.com/legal/terms-of-service) or Enterprise Terms of
 * Service (https://edgeimpulse.com/legal/enterprise-terms-of-service),
 * according to your product plan subscription (the “License”).
 *
 * This software, documentation and other associated files (collectively referred
 * to as the “Software”) is a single SDK variation generated by the Edge Impulse
 * platform and requires an active paid Edge Impulse subscription to use this
 * Software for any purpose.
 *
 * You may NOT use this Software unless you have an active Edge Impulse subscription
 * that meets the eligibility requirements for the applicable License, subject to
 * your full and continued compliance with the terms and conditions of the License,
 * including without limitation any usage restrictions under the applicable License.
 *
 * If you do not have an active Edge Impulse product plan subscription, or if use
 * of this Software exceeds the usage limitations of your Edge Impulse product plan
 * subscription, you are not permitted to use this Software and must immediately
 * delete and erase all copies of this Software within your control or possession.
 * Edge Impulse reserves all rights and remedies available to enforce its rights.
 *
 * Unless required by applicable law or agreed to in writing, the Software is
 * distributed on an "AS IS" BASIS, WITHOUT WARRANTIES OR CONDITIONS OF ANY KIND,
 * either express or implied. See the License for the specific language governing
 * permissions, disclaimers and limitations under the License.
 */
// Generated on: 20.06.2026 21:03:44

#include <stdio.h>
#include <stdlib.h>
#include "edge-impulse-sdk/tensorflow/lite/c/builtin_op_data.h"
#include "edge-impulse-sdk/tensorflow/lite/c/common.h"
#include "edge-impulse-sdk/tensorflow/lite/micro/micro_mutable_op_resolver.h"
#include "edge-impulse-sdk/porting/ei_classifier_porting.h"

#if EI_CLASSIFIER_PRINT_STATE
#if defined(__cplusplus) && EI_C_LINKAGE == 1
extern "C" {
    extern void ei_printf(const char *format, ...);
}
#else
extern void ei_printf(const char *format, ...);
#endif
#endif

#define STRINGIZE(x) #x
#define STRINGIZE_VALUE_OF(x) STRINGIZE(x)

#if defined (__GNUC__)  /* GNU compiler */
#define ALIGN(X) __attribute__((aligned(X)))
#define DEFINE_SECTION(x) __attribute__((section(x)))
#elif defined (_MSC_VER)
#define ALIGN(X) __declspec(align(X))
#elif defined (__TASKING__) /* TASKING Compiler */
#define ALIGN(X) __align(X)
#define DEFINE_SECTION(x) __attribute__((section(x)))
#elif defined (__ARMCC_VERSION) /* Arm Compiler */
#define ALIGN(X) __ALIGNED(x)
#define DEFINE_SECTION(x) __attribute__((section(x)))
#elif defined (__ICCARM__) /* IAR Compiler */
#define ALIGN(x) __attribute__((aligned(x)))
#define DEFINE_SECTION(x) __attribute__((section(x)))
#elif defined (__clang__) /* LLVM/Clang Compiler */
#define ALIGN(X) __ALIGNED(x)
#define DEFINE_SECTION(x) __attribute__((section(x)))
#endif

#if defined(EI_MODEL_SECTION) && (defined(__GNUC__) || defined(__clang__))
#define MODEL_SECTION(X) __attribute__((section(STRINGIZE_VALUE_OF(X))))
#else
#define MODEL_SECTION(X)
#endif

#ifndef EI_MAX_SCRATCH_BUFFER_COUNT
#ifndef CONFIG_IDF_TARGET_ESP32S3
#define EI_MAX_SCRATCH_BUFFER_COUNT 4
#else
#define EI_MAX_SCRATCH_BUFFER_COUNT 4
#endif // CONFIG_IDF_TARGET_ESP32S3
#endif // EI_MAX_SCRATCH_BUFFER_COUNT

#ifndef EI_MAX_OVERFLOW_BUFFER_COUNT
#define EI_MAX_OVERFLOW_BUFFER_COUNT 10
#endif // EI_MAX_OVERFLOW_BUFFER_COUNT

using namespace tflite;
using namespace tflite::ops;
using namespace tflite::ops::micro;

namespace {

#if defined(EI_CLASSIFIER_ALLOCATION_STATIC_HIMAX) || defined(EI_CLASSIFIER_ALLOCATION_STATIC_HIMAX_GNU)
constexpr int kTensorArenaSize = 1744;
#else
constexpr int kTensorArenaSize = 720;
#endif

#if defined(EI_CLASSIFIER_ALLOCATION_STATIC)
#if defined (EI_TENSOR_ARENA_LOCATION)
uint8_t tensor_arena[kTensorArenaSize] ALIGN(16) DEFINE_SECTION(STRINGIZE_VALUE_OF(EI_TENSOR_ARENA_LOCATION));
#else
uint8_t tensor_arena[kTensorArenaSize] ALIGN(16);
#endif
#elif defined(EI_CLASSIFIER_ALLOCATION_STATIC_HIMAX)
#pragma Bss(".tensor_arena")
uint8_t tensor_arena[kTensorArenaSize] ALIGN(16);
#pragma Bss()
#elif defined(EI_CLASSIFIER_ALLOCATION_STATIC_HIMAX_GNU)
uint8_t tensor_arena[kTensorArenaSize] ALIGN(16) __attribute__((section(".tensor_arena")));
#else
#define EI_CLASSIFIER_ALLOCATION_HEAP 1
uint8_t* tensor_arena = NULL;
#endif

static uint8_t* tensor_boundary;
static uint8_t* current_location;

template <int SZ, class T> struct TfArray {
  int sz; T elem[SZ];
};

enum used_operators_e {
  OP_FULLY_CONNECTED, OP_SOFTMAX,  OP_LAST
};

struct TensorInfo_t { // subset of TfLiteTensor used for initialization from constant memory
  TfLiteAllocationType allocation_type;
  void* data;
  TfLiteIntArray* dims;
  size_t bytes;
};

typedef struct {
  TfLiteTensor tensor;
  int16_t index;
} TfLiteTensorWithIndex;

typedef struct {
  TfLiteEvalTensor tensor;
  int16_t index;
} TfLiteEvalTensorWithIndex;

TfLiteContext ctx{};
static const int MAX_TFL_TENSOR_COUNT = 4;
static TfLiteTensorWithIndex tflTensors[MAX_TFL_TENSOR_COUNT];
static const int MAX_TFL_EVAL_COUNT = 4;
static TfLiteEvalTensorWithIndex tflEvalTensors[MAX_TFL_EVAL_COUNT];
TfLiteRegistration registrations[OP_LAST];

namespace g0 {
const TfArray<2, int> tensor_dimension0 = { 2, { 1,78 } };
const MODEL_SECTION(EI_MODEL_SECTION) ALIGN(16) float tensor_data1[3*10] = { 
  0.37674623727798462, 0.062120519578456879, 0.57208549976348877, -0.53097152709960938, -0.26562944054603577, 0.29448860883712769, 0.46968197822570801, -0.53095912933349609, -0.66547316312789917, 0.47420823574066162, 
  0.38862574100494385, 0.39976024627685547, -0.12294971942901611, -0.47122547030448914, -0.60305893421173096, 0.055912435054779053, 0.2033625990152359, -0.52340072393417358, 0.073062434792518616, -0.11514785885810852, 
  -0.54472297430038452, -0.1253083348274231, 0.66433978080749512, 0.024975061416625977, -0.59671753644943237, -0.5093843936920166, -0.56417274475097656, -0.31083041429519653, 0.60213762521743774, 0.15072199702262878, 
};
const TfArray<2, int> tensor_dimension1 = { 2, { 3,10 } };
const MODEL_SECTION(EI_MODEL_SECTION) ALIGN(16) float tensor_data2[10*20] = { 
  0.14745418727397919, -0.29143744707107544, -0.26366034150123596, 0.065151594579219818, 0.37869980931282043, 0.076436571776866913, 0.44804942607879639, -0.40376651287078857, -0.0070997858420014381, -0.22455780208110809, 0.091346234083175659, 0.091262489557266235, 0.21461305022239685, 0.41926568746566772, 0.19592063128948212, -0.29863324761390686, -0.015914985910058022, -0.10733343660831451, -0.29369911551475525, 0.094074904918670654, 
  -0.19159309566020966, -0.43261587619781494, 0.21085420250892639, 0.27839261293411255, 0.21400243043899536, -0.14270004630088806, -0.18506895005702972, -0.35533180832862854, -0.33094573020935059, 0.036678817123174667, -0.22369123995304108, -0.19136339426040649, 0.2021554559469223, 0.064233176410198212, 0.28384709358215332, 0.35311847925186157, -0.21300201117992401, 0.14899399876594543, -0.20560541749000549, -0.11774033308029175, 
  -0.086540102958679199, -0.36983108520507812, -0.011426568031311035, 0.40303337574005127, -0.18503651022911072, -0.22609998285770416, -0.13627669215202332, 0.078819572925567627, -0.15676471590995789, -0.043710947036743164, 0.12338340282440186, 0.19389015436172485, -0.081969767808914185, -0.33017858862876892, -0.050489902496337891, -0.26666605472564697, 0.32243669033050537, -0.3727266788482666, -0.38322222232818604, -0.30915829539299011, 
  0.20554542541503906, 0.051235824823379517, 0.39874038100242615, 0.0059520737268030643, -0.22722361981868744, 0.28768759965896606, -0.22420163452625275, -0.16351552307605743, -0.12660171091556549, 0.31993907690048218, 0.37912848591804504, 0.17494453489780426, -0.24826639890670776, -0.33652520179748535, -0.036307621747255325, -0.17442174255847931, -0.068453207612037659, -0.21216318011283875, 0.42556461691856384, 0.32163810729980469, 
  -0.19331938028335571, 0.2248397171497345, -0.39445173740386963, -0.16372278332710266, -0.33606037497520447, 0.25373771786689758, -0.15196365118026733, 0.088869363069534302, -0.37333133816719055, 0.20628902316093445, 0.32439029216766357, 0.20599308609962463, -0.10015431046485901, 0.184117391705513, 0.079741246998310089, -0.38090607523918152, -0.20409479737281799, 0.36247485876083374, 0.24520079791545868, 0.22064423561096191, 
  -0.33576247096061707, 0.26865863800048828, -0.2659904956817627, 0.19467127323150635, -0.11647129058837891, -0.44642287492752075, -0.025772631168365479, 0.29864662885665894, -0.44512087106704712, -0.17979496717453003, 0.29691082239151001, 0.22912448644638062, -0.19458532333374023, 0.23980724811553955, -0.091879725456237793, -0.25903475284576416, -0.14094427227973938, 0.23669981956481934, -0.25955837965011597, 0.015761494636535645, 
  0.37447342276573181, 0.17754009366035461, -0.26828199625015259, -0.29434353113174438, 0.29241177439689636, 0.31474894285202026, 0.04531097412109375, -0.14069083333015442, -0.076845943927764893, -0.03483784943819046, 0.24471394717693329, 0.17835302650928497, -0.30190864205360413, -0.17319434881210327, 0.040203195065259933, -0.05014839768409729, 0.21316461265087128, -0.048491548746824265, -0.0872979536652565, -0.13303959369659424, 
  -0.079896815121173859, 0.34381091594696045, 0.22821918129920959, 0.22014084458351135, -0.033792905509471893, 0.31296256184577942, 0.32328012585639954, -0.40686610341072083, 0.41183033585548401, -0.066630825400352478, -0.22445760667324066, 0.41146355867385864, 0.2914067804813385, -0.085709415376186371, -0.38913217186927795, 0.17534685134887695, 0.35089769959449768, 0.0070927017368376255, 0.08565521240234375, 0.32153928279876709, 
  0.21802210807800293, 0.15938806533813477, 0.26008924841880798, 0.17010270059108734, 0.34870418906211853, 0.1249951645731926, -0.4099542498588562, -0.087781704962253571, -0.13578464090824127, 0.096789248287677765, 0.35291486978530884, 0.065673463046550751, 0.017502859234809875, -0.38614901900291443, -0.13957968354225159, 0.35622704029083252, -0.32742807269096375, 0.25999152660369873, -0.14331813156604767, -0.12500813603401184, 
  0.14480295777320862, -0.27772670984268188, -0.03314131498336792, -0.028980720788240433, 0.29355800151824951, 0.37620460987091064, -0.089528776705265045, 0.026842430233955383, 0.28915879130363464, -0.39467370510101318, -0.21641641855239868, 0.18547947704792023, -0.27303370833396912, -0.210861936211586, 0.19160543382167816, -0.076681025326251984, -0.068700514733791351, 0.31744331121444702, -0.0033033329527825117, 0.29526698589324951, 
};
const TfArray<2, int> tensor_dimension2 = { 2, { 10,20 } };
const MODEL_SECTION(EI_MODEL_SECTION) ALIGN(16) float tensor_data3[10] = { -0.019560564309358597, -0.028191104531288147, 0, 0.019213737919926643, -0.024037066847085953, 0, -0.020998753607273102, 0.02903277613222599, 0.021936703473329544, -0.0010420595062896609, };
const TfArray<1, int> tensor_dimension3 = { 1, { 10 } };
const MODEL_SECTION(EI_MODEL_SECTION) ALIGN(16) float tensor_data4[20] = { -0.011141342110931873, -0.0043068584054708481, 0.039059393107891083, -0.0037871673703193665, -0.019615858793258667, -0.0039702868089079857, -0.021085718646645546, -0.004335715901106596, -0.00790364108979702, 0.037864416837692261, 0.001812526723369956, -0.0027372455224394798, 0.0062895794399082661, -0.022675327956676483, -0.017169298604130745, 0.016896845772862434, -0.019815372303128242, 0.02618020586669445, 0.025231162086129189, 0, };
const TfArray<1, int> tensor_dimension4 = { 1, { 20 } };
const MODEL_SECTION(EI_MODEL_SECTION) ALIGN(8) float tensor_data5[3] = { -0.015048409812152386, -0.02066250704228878, 0.029583469033241272, };
const TfArray<1, int> tensor_dimension5 = { 1, { 3 } };
const MODEL_SECTION(EI_MODEL_SECTION) ALIGN(16) float tensor_data6[20*78] = { 
  -0.021168386563658714, -0.034423708915710449, -0.046073425561189651, 0.1900593638420105, 0.056878019124269485, 0.12662689387798309, 0.078193634748458862, -0.14800146222114563, 0.090285897254943848, -0.18585996329784393, 0.0012329542078077793, 0.096895463764667511, -0.20564357936382294, -0.1721169501543045, -0.039332907646894455, 0.20613712072372437, 0.049817644059658051, 0.16604848206043243, -0.10833702236413956, -0.10752934217453003, 0.21977238357067108, -0.053280569612979889, 0.21355831623077393, 0.053961459547281265, -0.21295489370822906, 0.16515199840068817, -0.1391633152961731, -0.11425789445638657, -0.16913138329982758, -0.23188573122024536, 0.046692799776792526, 0.082400433719158173, 0.1542557030916214, -0.19264882802963257, -0.22066594660282135, 0.11395122110843658, -0.1423686146736145, 0.18462260067462921, -0.01377659197896719, -0.16997005045413971, 0.11792852729558945, -0.036572553217411041, -0.19240313768386841, -0.080452859401702881, -0.22377499938011169, 0.18837247788906097, -0.096863768994808197, 0.20126922428607941, -0.17050714790821075, -0.18607364594936371, -0.054836854338645935, -0.23909693956375122, 0.07548060268163681, -0.063303716480731964, -0.19327813386917114, 0.14232867956161499, 0.21681174635887146, 0.16739587485790253, 0.22650288045406342, 0.12903513014316559, 0.078995399177074432, -0.11116878688335419, 0.013166667893528938, -0.18472069501876831, -0.050521276891231537, -0.18309269845485687, -0.013257698155939579, 0.088010102510452271, 0.18958856165409088, -0.029405040666460991, 0.046116035431623459, -0.2180975079536438, -0.16136686503887177, -0.075804136693477631, -0.062600001692771912, -0.14457909762859344, 0.15672855079174042, 0.10234406590461731, 
  -0.24386514723300934, -0.012132275849580765, 0.19477254152297974, 0.026258109137415886, -0.075973793864250183, 0.036246474832296371, 0.072146683931350708, 0.068803697824478149, 0.1026642844080925, 0.22866834700107574, -0.15212124586105347, 0.10592081397771835, 0.036824814975261688, 0.040499322116374969, 0.14499334990978241, -0.13513246178627014, 0.18532051146030426, 0.11570965498685837, 0.24234224855899811, -0.14160577952861786, -0.036551978439092636, -0.019799798727035522, 0.20486310124397278, -0.041953586041927338, 0.12827092409133911, 0.1223902553319931, -0.047936569899320602, 0.17198744416236877, -0.063165314495563507, -0.18341852724552155, -0.0425562784075737, 0.22309012711048126, 0.20600762963294983, 0.23160424828529358, 0.16205583512783051, -0.072498887777328491, -0.18978439271450043, -0.018150577321648598, 0.068131119012832642, -0.11483097821474075, -0.09717559814453125, -0.13816425204277039, 0.2330557256937027, 0.16683337092399597, 0.13593333959579468, -0.06828569620847702, 0.17613363265991211, -0.17391286790370941, 0.015382527373731136, -0.0036810238379985094, -0.22696429491043091, -0.032377079129219055, 0.0047754710540175438, -0.087095625698566437, -0.036441504955291748, -0.25098317861557007, -0.22704799473285675, 0.18940231204032898, 0.19890061020851135, -0.1994294673204422, -0.047771193087100983, 0.16294249892234802, -0.10284543037414551, -0.046089407056570053, -0.064378909766674042, -0.001838774885982275, 0.18762694299221039, -0.23839789628982544, 0.1296095997095108, -0.069522932171821594, 0.2158658504486084, -0.14280210435390472, 0.14103832840919495, -0.019614562392234802, 0.03075164370238781, 0.19502644240856171, -0.080634400248527527, -0.14223335683345795, 
  0.15148991346359253, -0.018810475245118141, -0.22744163870811462, -0.13653920590877533, 0.10667994618415833, -0.17008231580257416, 0.10838396102190018, 0.16446244716644287, 0.1930662989616394, -0.061546199023723602, -0.22469723224639893, -0.00042586014023981988, -0.21752138435840607, 0.12287331372499466, -0.16515755653381348, 0.18767727911472321, 0.11525578051805496, 0.16548894345760345, -0.038234427571296692, 0.063008531928062439, 0.20202989876270294, -0.2674662172794342, 0.094814486801624298, -0.23157402873039246, -0.010178505443036556, -0.10161364823579788, 0.23104228079319, 0.13111241161823273, -0.10803988575935364, -0.15408472716808319, -0.13539999723434448, 0.11892528831958771, 0.082502067089080811, -0.21753710508346558, -0.087354257702827454, -0.12063899636268616, -0.25002139806747437, -0.055518720299005508, 0.1002693697810173, -0.16342923045158386, 0.15275318920612335, 0.13121174275875092, -0.19440107047557831, -0.055868975818157196, 0.12348190695047379, -0.0098082767799496651, -0.089222609996795654, -0.15788739919662476, 0.1247808039188385, -0.024316892027854919, 0.16399070620536804, -0.016400353983044624, -0.027459191158413887, -0.009459461085498333, 0.10005368292331696, -0.16543255746364594, 0.015540502965450287, 0.067793518304824829, 0.063707441091537476, -0.030066527426242828, 0.26200684905052185, -0.046883001923561096, -0.0016056947642937303, 0.078766576945781708, -0.029773980379104614, 0.1670658141374588, 0.074962690472602844, -0.13920994102954865, -0.042442265897989273, -0.1128295361995697, 0.024498270824551582, -0.20002672076225281, 0.055696692317724228, 0.24467232823371887, -0.0033667609095573425, -0.17079189419746399, -0.1688305139541626, 0.1705956757068634, 
  -0.1902153491973877, 0.090093858540058136, -0.1081782728433609, 0.14320778846740723, -0.018948033452033997, 0.14416646957397461, -0.026909904554486275, 0.24800461530685425, 0.14056272804737091, -0.18500953912734985, 0.20038329064846039, 0.20241199433803558, 0.11232997477054596, 0.1300019770860672, 0.075576528906822205, -0.073465533554553986, -0.1903473436832428, -0.12246476858854294, 0.06610725075006485, 0.13169088959693909, -0.18773992359638214, 0.072969391942024231, -0.18876431882381439, -0.12241026759147644, 0.11562804132699966, 0.093209333717823029, -0.15282618999481201, 0.13731499016284943, 0.18490305542945862, 0.16880077123641968, -0.085435472428798676, 0.10628985613584518, 0.20340365171432495, -0.10025421530008316, 0.15560151636600494, 0.039223145693540573, 0.23375320434570312, -0.23144325613975525, 0.041694246232509613, 0.17916718125343323, -0.24034677445888519, 0.1227884441614151, -0.00041403330396860838, 0.18560878932476044, 0.22912736237049103, -0.19190713763237, -0.01432486716657877, -0.16225898265838623, 0.13984270393848419, 0.10868877917528152, -0.16483299434185028, -0.013917507603764534, -0.062978141009807587, -0.23459140956401825, 0.032378062605857849, -0.19289948046207428, -0.21369442343711853, -0.24782232940196991, -0.10597015172243118, -0.037053175270557404, 0.2115226686000824, 0.073342792689800262, 0.22036340832710266, 0.16533927619457245, -0.17174315452575684, -0.22019070386886597, 0.10079847276210785, -0.22432908415794373, -0.15891200304031372, -0.2288062572479248, 0.13562342524528503, -0.13012777268886566, -0.13833308219909668, -0.18048572540283203, 0.045987565070390701, 0.080083087086677551, -0.067074857652187347, 0.23656640946865082, 
  0.22471550107002258, 0.030522864311933517, 0.045597631484270096, -0.17112948000431061, -0.1875598281621933, -0.1622166633605957, 0.22534540295600891, -0.038095496594905853, -0.094680353999137878, 0.16431614756584167, -0.051284957677125931, 0.065182752907276154, -0.13287776708602905, -0.097009457647800446, -0.15992513298988342, 0.13072508573532104, 0.12399593740701675, 0.1707034558057785, -0.00094169488875195384, -0.03751213476061821, -0.0076627410016953945, 0.24411554634571075, -0.029920266941189766, -0.019745346158742905, -0.058747787028551102, 0.03038083016872406, 0.20070064067840576, 0.1755678653717041, -0.21765300631523132, -0.21163703501224518, 0.12198478728532791, -0.13741342723369598, 0.23781752586364746, -0.15504558384418488, -0.057947836816310883, -0.099390462040901184, -0.055808719247579575, -0.20493455231189728, 0.072235360741615295, 0.15907016396522522, 0.0034511762205511332, 0.066719807684421539, -0.21958407759666443, -0.070765957236289978, 0.12107455730438232, -0.16867451369762421, 0.16169328987598419, 0.12920930981636047, -0.066560737788677216, 0.14641843736171722, 0.13623736798763275, 0.15750530362129211, -0.17497038841247559, -0.067186348140239716, -0.055353142321109772, 0.21859650313854218, 0.17634908854961395, 0.17296060919761658, 0.19722649455070496, 0.12427049875259399, -0.22888295352458954, -0.21539466083049774, 0.20334802567958832, 0.20620758831501007, -0.0061055552214384079, 0.14456899464130402, -0.11926525086164474, 0.24485352635383606, -0.25174972414970398, -0.04088495671749115, -0.23015327751636505, 0.046297341585159302, 0.14891350269317627, 0.064603053033351898, 0.080599144101142883, 0.093629851937294006, -0.10068821161985397, -0.087276056408882141, 
  -0.082346469163894653, 0.22265380620956421, 0.015799945220351219, -0.014385830610990524, -0.08601853996515274, -0.18441076576709747, 0.032816998660564423, 0.25012129545211792, -0.089622825384140015, 0.058751072734594345, -0.22191870212554932, -0.082470372319221497, -0.23422098159790039, 0.13532619178295135, 0.073735982179641724, 0.013178519904613495, -0.22189733386039734, 0.074741624295711517, -0.058923419564962387, 0.036387324333190918, -0.17618100345134735, -0.19000084698200226, -0.010288006626069546, -0.10848114639520645, 0.19233602285385132, -0.051562964916229248, 0.046213984489440918, -0.044257879257202148, -0.094695180654525757, 0.23252707719802856, -0.065891116857528687, -0.018454363569617271, 0.19737090170383453, -0.14364118874073029, 0.061497122049331665, -0.22259098291397095, 0.17397485673427582, -0.13628470897674561, 0.1069316565990448, 0.20442229509353638, 0.20819860696792603, 0.10018900036811829, -0.16731941699981689, -0.059460721909999847, 0.041744042187929153, -0.24103723466396332, -0.18323300778865814, -0.16281713545322418, -0.0081320879980921745, 0.15387175977230072, 0.21407231688499451, -0.035821907222270966, 0.087835557758808136, -0.11906913667917252, 0.13779520988464355, 0.14559416472911835, 0.088087916374206543, -0.029065772891044617, 0.13810279965400696, 0.018149895593523979, 0.062824845314025879, -0.23218716681003571, 0.16117151081562042, -0.19228434562683105, -0.067808143794536591, 0.0058559747412800789, -0.048485644161701202, 0.1987234503030777, 0.21262159943580627, 0.11732684075832367, 0.22786606848239899, -0.11223548650741577, 0.16649520397186279, -0.18033604323863983, -0.24375103414058685, -0.16004057228565216, -0.03013911098241806, -0.036772321909666061, 
  0.13378296792507172, -0.034375958144664764, -0.1107187494635582, -0.14619535207748413, -0.13738003373146057, -0.21189545094966888, -0.052741330116987228, 0.20065926015377045, -0.059914492070674896, 0.046199321746826172, 0.016498513519763947, 0.0073077185079455376, 0.028799520805478096, 0.16929064691066742, 0.12203753739595413, -0.027580074965953827, -0.11029590666294098, -0.11316844075918198, 0.26868176460266113, 0.21759019792079926, -0.088532216846942902, 0.07358822226524353, -0.082802668213844299, 0.18537923693656921, -0.070373877882957458, 0.0029188308399170637, 0.24339564144611359, -0.19862949848175049, 0.21133951842784882, 0.044558275490999222, 0.16486354172229767, -0.19986541569232941, 0.030312245711684227, -0.0040263980627059937, -0.16493706405162811, 0.16808132827281952, -0.19598282873630524, 0.12629424035549164, -0.17121848464012146, 0.25222212076187134, 0.0064703207463026047, 0.062090691179037094, -0.013781281188130379, 0.033187653869390488, -0.12317810952663422, -0.21524691581726074, 0.22875858843326569, -0.13830567896366119, -0.033373784273862839, -0.061969373375177383, -0.17178210616111755, 0.19144657254219055, -0.18863227963447571, 0.13765893876552582, 0.10574214905500412, -0.034342244267463684, 0.040543116629123688, 0.20394271612167358, 0.13090607523918152, -0.093774057924747467, -0.16233143210411072, 0.015862027183175087, 0.16335909068584442, -0.15928144752979279, 0.10469896346330643, 0.080906443297863007, -0.18569560348987579, 0.16488955914974213, -0.17809458076953888, -0.108370341360569, 0.031443189829587936, 0.20305079221725464, -0.086866937577724457, 0.097735762596130371, 0.055653925985097885, 0.12796516716480255, 0.097297050058841705, 0.17720088362693787, 
  0.16120518743991852, -0.22114706039428711, 0.05130309984087944, 0.20236282050609589, 0.20538422465324402, 0.053088456392288208, 0.052521210163831711, 0.088738001883029938, -0.088030315935611725, 0.19805292785167694, -0.058954205363988876, 0.22906580567359924, -0.093646608293056488, 0.076650679111480713, -0.17252092063426971, -0.2305281013250351, -0.095605902373790741, -0.15085604786872864, -0.18018817901611328, 0.22021158039569855, 0.19679324328899384, -0.16106699407100677, -0.13368694484233856, -0.0086779138073325157, -0.057718440890312195, 0.2300938218832016, -0.087244004011154175, 0.055718544870615005, -0.24511125683784485, -0.044931620359420776, 0.037050362676382065, 0.20917887985706329, 0.041683070361614227, -0.22322908043861389, -0.09800439327955246, -0.23405192792415619, -0.048775553703308105, 0.061712831258773804, 0.16132631897926331, -0.099889636039733887, -0.024636872112751007, 0.050521139055490494, 0.24309830367565155, 0.24010354280471802, 0.07165062427520752, -0.034522932022809982, 0.039748884737491608, -0.21587978303432465, -0.15357831120491028, 0.11286376416683197, -0.1750800758600235, -0.074060492217540741, -0.062729611992835999, 0.056787759065628052, -0.09808630496263504, -0.16124637424945831, -0.20117735862731934, 0.15571759641170502, 0.14915676414966583, -0.25044995546340942, -0.17297086119651794, -0.08926767110824585, 0.116128109395504, -0.18363185226917267, 0.12186545878648758, 0.050727281719446182, 0.076315492391586304, -0.093516089022159576, -0.12958480417728424, 0.22775991261005402, -0.159770667552948, 0.032630637288093567, -0.05396338552236557, 0.092208407819271088, -0.010163940489292145, 0.035688444972038269, -0.097561061382293701, 0.1322549432516098, 
  0.11800025403499603, 0.26524776220321655, 0.15533135831356049, -0.054831519722938538, -0.22925539314746857, 0.13904735445976257, -0.039481636136770248, -0.14440448582172394, -0.01105376984924078, -0.045701935887336731, 0.0086964350193738937, 0.15131145715713501, 0.15377260744571686, -0.081091210246086121, 0.069850131869316101, -0.1147681251168251, 0.095118597149848938, -0.11706729233264923, 0.25390943884849548, 0.065444998443126678, 0.24792061746120453, 0.19682577252388, 0.24581331014633179, 0.12503299117088318, 0.18010741472244263, 0.18531489372253418, 0.17003040015697479, -0.0089560607448220253, 0.22447320818901062, -0.22481177747249603, 0.12362799048423767, -0.23631656169891357, -0.039555642753839493, -0.0073382495902478695, -0.19290904700756073, -0.057830575853586197, -0.20542681217193604, 0.22374017536640167, -0.14549887180328369, 0.027527736499905586, -0.09378071129322052, -0.1439313143491745, -0.22706127166748047, -0.096100516617298126, -0.21647243201732635, 0.070745445787906647, -0.086934551596641541, -0.032851219177246094, -0.1282162219285965, 0.071341782808303833, -0.22733958065509796, -0.24204835295677185, 0.22661501169204712, -0.17279461026191711, 0.14156417548656464, 0.10398674756288528, 0.014334063045680523, 0.10577881336212158, -0.03160940483212471, -0.10065950453281403, 0.14467471837997437, -0.065370447933673859, 0.1967616081237793, -0.10701920092105865, 0.0053792153485119343, -0.2299182116985321, 0.23299437761306763, 0.18364962935447693, 0.14496457576751709, -0.12914951145648956, -0.1067703440785408, -0.076931588351726532, 0.03734118863940239, -0.20316515862941742, -0.080882005393505096, -0.22416114807128906, -0.18427921831607819, -0.11266526579856873, 
  -0.16255420446395874, 0.072979196906089783, -0.19676931202411652, 0.019772619009017944, -0.12093766778707504, 0.12422682344913483, -0.25480246543884277, -0.033735368400812149, -0.16638557612895966, -0.27992299199104309, -0.2448551207780838, -0.20183277130126953, -0.28074586391448975, -0.04422798752784729, -0.20066112279891968, 0.19970916211605072, 0.0090786842629313469, 0.173900306224823, 0.14325815439224243, -0.19342523813247681, -0.089652769267559052, 0.11743059009313583, 0.0080294376239180565, 0.18936145305633545, 0.20597818493843079, 0.1265246570110321, 0.057095278054475784, 0.098170191049575806, -0.0011384270619601011, 0.15057849884033203, -0.072946824133396149, -0.080029331147670746, -0.20120854675769806, -0.031370647251605988, 0.14423744380474091, 0.046030662953853607, 0.13413503766059875, 0.15528346598148346, -0.067899905145168304, 0.073854461312294006, 0.0098370807245373726, 0.097852408885955811, -0.096549086272716522, 0.070336230099201202, -0.067656673491001129, -0.20869988203048706, 0.19567729532718658, 0.13653814792633057, 0.24777388572692871, -0.15343737602233887, 0.16338890790939331, 0.26913166046142578, -0.20383353531360626, -0.20942184329032898, -0.16673204302787781, 0.077203981578350067, 0.15107424557209015, 0.062544703483581543, -0.18697258830070496, 0.11082139611244202, -0.18178203701972961, -0.098567351698875427, -0.13435027003288269, 0.22167758643627167, 0.039442639797925949, -0.0207490473985672, -0.24087417125701904, -0.053772181272506714, -0.13278974592685699, 0.13023814558982849, -0.11660811305046082, 0.20123718678951263, 0.24999281764030457, 0.04313596710562706, -0.006463212426751852, -0.14745432138442993, 0.2627810537815094, -0.033462077379226685, 
  0.23482288420200348, 0.030731251463294029, 0.12236598134040833, -0.23812060058116913, -0.19485028088092804, -0.10760412365198135, 0.13197411596775055, 0.030867587774991989, -0.020897833630442619, 0.075328782200813293, -0.19191472232341766, 0.065555565059185028, 0.055534627288579941, -0.20110192894935608, 0.085334129631519318, -0.13989582657814026, -0.0058581694029271603, -0.0057162083685398102, 0.074643708765506744, 0.042209230363368988, -0.22147993743419647, 0.10242882370948792, -0.2377457469701767, 0.17873644828796387, 0.18837034702301025, -0.05826675146818161, -0.11691649258136749, -0.084635257720947266, 0.16149243712425232, 0.1732068806886673, -0.23068356513977051, -0.20399025082588196, -0.20663818717002869, -0.064635530114173889, 0.23156039416790009, 0.202501580119133, -0.082933351397514343, -0.20412224531173706, -0.20505759119987488, 0.065368868410587311, 0.068514928221702576, -0.027318667620420456, 0.010121659375727177, -0.083538912236690521, -0.083398692309856415, 0.16592426598072052, 0.014474605210125446, -0.23577527701854706, 0.14190131425857544, 0.092529453337192535, -0.078655809164047241, -0.154758021235466, -0.055271033197641373, -0.0060750343836843967, 0.15619480609893799, 0.21433332562446594, -0.16676169633865356, -0.10876009613275528, 0.049099300056695938, -0.042637195438146591, 0.062781207263469696, 0.081233963370323181, 0.15707975625991821, 0.16167208552360535, 0.058509644120931625, -0.24388931691646576, -0.24525022506713867, 0.1022387370467186, 0.1075604036450386, 0.059448733925819397, 0.18801452219486237, 0.026335353031754494, -0.056618142873048782, -0.099487610161304474, -0.0033146156929433346, 0.21798679232597351, 0.067370347678661346, -0.15529479086399078, 
  -0.049790706485509872, 0.1226198673248291, 0.19187410175800323, -0.082420304417610168, -0.2002778947353363, -0.23396103084087372, 0.22600638866424561, -0.13229967653751373, 0.15301164984703064, -0.084130451083183289, 0.19440834224224091, 0.20643779635429382, 0.14970624446868896, 0.23963718116283417, -0.054642103612422943, 0.13029244542121887, -0.10473114252090454, -0.089247219264507294, 0.22966225445270538, 0.023916766047477722, -0.029212635010480881, -0.025675289332866669, 0.26598057150840759, 0.03991742804646492, 0.10626842826604843, 0.12440904229879379, 0.13210186362266541, 0.11099220812320709, 0.26411774754524231, 0.082127973437309265, -0.040985636413097382, -0.0675186887383461, -0.0066951820626854897, -0.12548708915710449, 0.037548210471868515, -0.083953976631164551, -0.19264301657676697, 0.033718328922986984, 0.04304124042391777, 0.11781386286020279, 0.14851304888725281, 0.17906332015991211, 0.20852743089199066, -0.040558233857154846, -0.13176687061786652, -0.079423636198043823, 0.052971351891756058, 0.11272531002759933, -0.21282860636711121, -0.024511057883501053, -0.18504057824611664, 0.16437962651252747, 0.069306060671806335, 0.060645207762718201, 0.25134244561195374, 0.13591310381889343, 0.1132257878780365, -0.047620475292205811, 0.023825943470001221, -0.19878259301185608, 0.18416027724742889, 0.1304260641336441, -0.0076755974441766739, -0.068898558616638184, 0.1723184734582901, 0.14983339607715607, 0.20148591697216034, -0.057562727481126785, -0.052350781857967377, -0.057597272098064423, -0.19044962525367737, 0.0057679801248013973, -0.13695989549160004, -0.14610789716243744, 0.1977936327457428, 0.066663198173046112, 0.10727380216121674, 0.201555997133255, 
  -0.10330585390329361, -0.21163961291313171, 0.0060044252313673496, -0.065917029976844788, 0.16106538474559784, -0.21650588512420654, -0.1506447046995163, -0.24385002255439758, -0.20324769616127014, 0.11167099326848984, -0.062480561435222626, -0.23384465277194977, 0.055428348481655121, 0.13612891733646393, -0.094089441001415253, 0.16673396527767181, 0.03846307098865509, -0.084069259464740753, 0.19726741313934326, -0.075429804623126984, 0.10735099017620087, 0.13082821667194366, -0.16047193109989166, 0.14589771628379822, 0.11748158186674118, -0.083939030766487122, 0.025463953614234924, -0.13278807699680328, 0.18806092441082001, -0.055741284042596817, -0.10126897692680359, 0.053118061274290085, -0.24211829900741577, 0.21310929954051971, 0.14484329521656036, 0.14451739192008972, 0.19136698544025421, -0.16795611381530762, -0.21400979161262512, -0.14631426334381104, -0.01980939693748951, 0.050811678171157837, -0.18443714082241058, -0.11059100925922394, -0.23833589255809784, -0.090575084090232849, 0.23181658983230591, 0.1443268209695816, -0.031320076435804367, 0.25026389956474304, 0.16870449483394623, -0.21178519725799561, -0.23808559775352478, 0.054335307329893112, -0.16362014412879944, -0.23487935960292816, -0.17502623796463013, 0.082463249564170837, -0.039667397737503052, 0.11404042690992355, -0.074561454355716705, -0.1710740327835083, -0.18163321912288666, 0.16898024082183838, 0.045993529260158539, 0.06670929491519928, 0.16220870614051819, 0.08833293616771698, 0.022635921835899353, 0.15962658822536469, 0.0048222476616501808, -0.10992308706045151, 0.11846096068620682, 0.16465182602405548, 0.072504594922065735, -0.23679447174072266, -0.091157153248786926, 0.19273720681667328, 
  0.076334133744239807, -0.25479835271835327, -0.13045617938041687, -0.035584334284067154, 0.20684689283370972, 0.26191800832748413, -0.18279275298118591, 0.25248333811759949, -0.010109998285770416, 0.081520587205886841, 0.070041269063949585, 0.088715285062789917, 0.24027612805366516, 0.085113078355789185, -0.024505658075213432, -0.18314878642559052, -0.26740312576293945, -0.053666319698095322, -0.17416416108608246, -0.067040286958217621, -0.16462190449237823, -0.17083103954792023, 0.010578100569546223, -0.056491818279027939, -0.081632964313030243, -0.22239314019680023, -0.14978377521038055, 0.19932012259960175, -0.054790861904621124, -0.0035471043083816767, 0.076782755553722382, -0.21362882852554321, -0.15871956944465637, -0.21315167844295502, -0.010584400035440922, 0.08349156379699707, 0.1343001127243042, 0.0059198290109634399, 0.22179962694644928, -0.073417775332927704, 0.21110109984874725, 0.11092759668827057, 0.18316969275474548, -0.16881729662418365, 0.18370485305786133, -0.1423986554145813, -0.034243810921907425, 0.11621315032243729, 0.2223888486623764, 0.12638860940933228, 0.057744834572076797, 0.091643892228603363, -0.1939302384853363, -0.12648403644561768, 0.25154075026512146, -0.11529538035392761, 0.043122004717588425, 0.14894154667854309, 0.10215239226818085, -0.065112993121147156, -0.020752394571900368, -0.10607592761516571, -0.062989987432956696, -0.21203418076038361, 0.13823606073856354, 0.17747440934181213, 0.18224729597568512, 0.18529364466667175, 0.027597393840551376, 0.24839916825294495, -0.22614423930644989, -0.068636491894721985, 0.13230510056018829, -0.0692787766456604, 0.093189060688018799, -0.20081543922424316, -0.15537469089031219, -0.13549940288066864, 
  0.24974739551544189, -0.22136473655700684, -0.12613998353481293, 0.033564716577529907, 0.01524336077272892, -0.12475570291280746, -0.089408218860626221, 0.1029604896903038, 0.13459448516368866, 0.099920980632305145, 0.25545930862426758, -0.22482345998287201, -0.19182392954826355, 0.25672227144241333, -0.23075734078884125, -0.11347528547048569, -0.23378364741802216, 0.023709194734692574, 0.15773767232894897, -0.17541414499282837, 0.22445638477802277, 0.25549918413162231, -0.10648120194673538, 0.19542942941188812, -0.21297363936901093, -0.12753115594387054, -0.010910960845649242, -0.22825074195861816, 0.16978937387466431, -0.084656596183776855, 0.24064517021179199, -0.11220312118530273, -0.091227509081363678, 0.17052353918552399, -0.018768182024359703, -0.14346294105052948, -0.17662118375301361, 0.07459644228219986, 0.21392107009887695, -0.22169847786426544, -0.26294389367103577, 0.19809724390506744, -0.24709974229335785, 0.1639971137046814, -0.053526166826486588, 0.13447290658950806, -0.10773091018199921, -0.17465971410274506, -0.25556018948554993, -0.12106568366289139, -0.065748468041419983, 0.090926550328731537, 0.093630328774452209, -0.046260159462690353, -0.15606503188610077, -0.17526200413703918, 0.22174954414367676, -0.072430528700351715, 0.19833238422870636, -0.15447486937046051, -0.00080639717634767294, 0.086851790547370911, -0.16368535161018372, 0.20543521642684937, 0.018755387514829636, 0.21722926199436188, 0.19990985095500946, 0.14796791970729828, -0.057306554168462753, 0.14546501636505127, 0.0084852669388055801, -0.16699293255805969, 0.20341849327087402, -0.11712991446256638, 0.1942029595375061, 0.098716467618942261, -0.12074556201696396, 0.04439050704240799, 
  -0.0085431067273020744, 0.16998384892940521, -0.15758909285068512, -0.22172503173351288, -0.23908030986785889, 0.041355691850185394, -0.055206198245286942, 0.016555400565266609, 0.066370978951454163, 0.058822382241487503, -0.037958361208438873, 0.071937240660190582, -0.16043341159820557, 0.087873123586177826, 0.08808482438325882, 0.17687572538852692, 0.048274662345647812, 0.098198182880878448, 0.058589812368154526, 0.11815145611763, -0.25035828351974487, 0.18051423132419586, -0.22565637528896332, 0.082323886454105377, 0.030762394890189171, -0.022989537566900253, -0.097657695412635803, -0.09012535959482193, -0.062606073915958405, -0.1203816756606102, 0.070880256593227386, -0.11010605096817017, -0.11301329731941223, 0.10538609325885773, -0.041366193443536758, 0.029860172420740128, -0.0238970797508955, -0.24947026371955872, 0.039060551673173904, 0.21618814766407013, 0.10441421717405319, -0.12863785028457642, 0.067179284989833832, -0.19506575167179108, 0.1725139319896698, -0.14831700921058655, -0.21556663513183594, -0.05855269730091095, -0.17313233017921448, 0.17587164044380188, 0.10845629870891571, -0.013852722942829132, 0.15084610879421234, 0.22256664931774139, 0.069611504673957825, -0.13539709150791168, 0.19642907381057739, 0.10474605858325958, -0.17837722599506378, 0.20749397575855255, 0.011889317072927952, -0.14796726405620575, 0.051676098257303238, -0.10008104890584946, 0.046416670083999634, 0.085036993026733398, 0.00071631936589255929, -0.15632899105548859, 0.016997374594211578, 0.13649371266365051, -0.20610824227333069, 0.21038514375686646, 0.20729419589042664, 0.22269566357135773, 0.111494280397892, 0.18936039507389069, -0.09161020815372467, 0.066380612552165985, 
  0.0035393279977142811, -0.12069759517908096, -0.12056691944599152, -0.031081676483154297, 0.20228961110115051, -0.031876083463430405, -0.055554121732711792, -0.15212993323802948, 0.11459095776081085, -0.19137182831764221, -0.18871898949146271, -0.052754800766706467, 0.082823887467384338, 0.14325729012489319, -0.057808905839920044, 0.10421907156705856, -0.20685487985610962, -0.12236650288105011, 0.1359727531671524, -0.04993080347776413, -0.17757631838321686, -0.11386913061141968, 0.12087872624397278, -0.076550297439098358, 0.12989747524261475, -0.053561113774776459, -0.065781489014625549, 0.16814859211444855, -0.16750828921794891, 0.15912051498889923, 0.078362956643104553, 0.022482717409729958, 0.21654170751571655, -0.1227482408285141, -0.049727588891983032, -0.10633780807256699, 0.09813477098941803, -0.18615753948688507, -0.084658250212669373, -0.0012943217298015952, 0.036249842494726181, -0.027552662417292595, 0.039221350103616714, 0.19036813080310822, -0.034063767641782761, -0.2055867612361908, 0.18102312088012695, -0.23286764323711395, -0.028634561225771904, -0.10933055728673935, 0.0077613252215087414, -0.04192739725112915, -0.027353620156645775, -0.19264692068099976, -0.0084043927490711212, -0.2423870712518692, -0.025948978960514069, -0.05394260585308075, 0.15316061675548553, -0.17878079414367676, -0.16799312829971313, 0.2034759521484375, -0.15206514298915863, 0.0042634536512196064, -0.1842145174741745, 0.12275285273790359, 0.041448883712291718, -0.085495270788669586, -0.0057107624597847462, 0.25017541646957397, -0.21179422736167908, -0.063436299562454224, -0.13989196717739105, 0.19781316816806793, 0.17025123536586761, 0.11204133927822113, -0.12876012921333313, 0.052955944091081619, 
  -0.076802127063274384, 0.14440640807151794, 0.23169107735157013, 0.19090454280376434, 0.1729905903339386, -0.10909613966941833, -0.12835878133773804, 0.17296738922595978, 0.053346533328294754, -0.062775127589702606, -0.11771970242261887, 0.20816461741924286, -0.11815031617879868, 0.14686337113380432, -0.1732633113861084, -0.054370246827602386, -0.15201038122177124, 0.063952699303627014, 0.19354882836341858, -0.16444702446460724, 0.10079978406429291, -0.13425628840923309, -0.21112491190433502, 0.21196334064006805, -0.1618209183216095, -0.2201022207736969, -0.15353000164031982, 0.097722463309764862, 0.0017896285280585289, -0.12764430046081543, -0.055058792233467102, -0.21947519481182098, -0.024619663134217262, 0.028270971029996872, -0.010269547812640667, 0.20976094901561737, 0.20182260870933533, -0.16304273903369904, 0.14061248302459717, -0.22840395569801331, -0.21406486630439758, -0.088198751211166382, 0.25384899973869324, -0.094611600041389465, 0.087167896330356598, -0.14590409398078918, 0.041410677134990692, 0.25294002890586853, -0.16518345475196838, 0.14005361497402191, -0.092172011733055115, -0.11855467408895493, 0.20114198327064514, 0.11567411571741104, 0.038721878081560135, -0.16996169090270996, 0.1719239205121994, -0.20487628877162933, -0.042594797909259796, -0.10039900988340378, 0.093720331788063049, -0.17307208478450775, 0.13662771880626678, 0.25043582916259766, -0.030574550852179527, 0.11501182615756989, -0.043000802397727966, 0.0068188952282071114, 0.076387949287891388, -0.098844267427921295, 0.20673845708370209, -0.068403914570808411, 0.17982496321201324, 0.24796032905578613, 0.13850498199462891, 0.083704754710197449, -0.17381393909454346, -0.15741005539894104, 
  -0.21282878518104553, -0.037941407412290573, 0.12331856042146683, -0.21795403957366943, 0.12669947743415833, -0.0083354227244853973, -0.18815404176712036, -0.050618838518857956, -0.033905994147062302, -0.11344393342733383, -0.25424417853355408, -0.12094511091709137, -0.23674763739109039, -0.16258621215820312, -0.19919520616531372, -0.11221351474523544, 0.039425507187843323, -0.13357645273208618, -0.16186891496181488, 0.067842483520507812, -0.14860263466835022, 0.17767801880836487, -0.15965463221073151, 0.16731570661067963, -0.1326102614402771, -0.24042953550815582, -0.012793764472007751, -0.042264953255653381, -0.19070003926753998, -0.14796219766139984, 0.11491519957780838, -0.13540858030319214, -0.18438735604286194, -0.24882562458515167, 0.21548762917518616, 0.16713258624076843, 0.041113097220659256, -0.19219914078712463, -0.21616700291633606, -0.061373241245746613, -0.15454010665416718, 0.0496041439473629, -0.12650270760059357, 0.10846968740224838, 0.029666746035218239, -0.014303350821137428, 0.27142134308815002, 0.080404140055179596, -0.16909556090831757, -0.20146051049232483, 0.038546361029148102, -0.18449673056602478, 0.11286661773920059, -0.14548148214817047, 0.12245021015405655, -0.15082453191280365, -0.18277508020401001, -0.13325025141239166, -0.045352563261985779, 0.19886167347431183, -0.053875423967838287, -0.10529587417840958, -0.13846179842948914, 0.21637657284736633, 0.1448817253112793, -0.10726890712976456, 0.2275027334690094, -0.18521679937839508, 0.033965591341257095, 0.19911521673202515, 0.17645092308521271, 0.15860939025878906, 0.21014596521854401, -0.087215982377529144, -0.20675705373287201, 0.099440649151802063, 0.24502195417881012, 0.069591477513313293, 
  -0.0079828500747680664, 0.18481136858463287, 0.012928500771522522, -0.12046508491039276, -0.042005881667137146, -0.080791085958480835, 0.073249086737632751, -0.032531499862670898, 0.17681853473186493, 0.16683699190616608, -0.19874665141105652, 0.19452573359012604, 0.16926251351833344, -0.0028256624937057495, -0.0039583891630172729, -0.10076792538166046, -0.0068151354789733887, -0.20588430762290955, -0.13086163997650146, 0.06630156934261322, -0.092949360609054565, -0.22544842958450317, 0.19294483959674835, -0.19304588437080383, -0.016394585371017456, 0.0064595788717269897, -0.15912798047065735, -0.10351294279098511, 0.086776718497276306, 0.19470064342021942, -0.17152513563632965, 0.036169424653053284, 0.20771552622318268, -0.15339720249176025, 0.021208509802818298, 0.08516673743724823, -0.22450046241283417, 0.053162470459938049, 0.014990732073783875, -0.031448021531105042, -0.1610739529132843, -0.17034408450126648, 0.064662978053092957, 0.13742978870868683, 0.0015203207731246948, -0.19872446358203888, -0.22952982783317566, 0.065859243273735046, -0.023604869842529297, 0.0088737159967422485, 0.062819674611091614, 0.11303876340389252, -0.20769339799880981, 0.083810135722160339, 0.11382238566875458, -0.12586656212806702, 0.13013638556003571, -0.20496973395347595, -0.1650920957326889, 0.20503650605678558, -0.19027391076087952, 0.16447608172893524, -0.18022912740707397, 0.086773350834846497, -0.18528401851654053, -0.027432888746261597, -0.039611876010894775, -0.1666833758354187, -0.1776573657989502, -0.14570778608322144, -0.23542141914367676, 0.16274635493755341, -0.072316467761993408, -0.034347489476203918, -0.053294658660888672, 0.082899972796440125, -0.20549973845481873, -0.2412276566028595, 
};
const TfArray<2, int> tensor_dimension6 = { 2, { 20,78 } };
const TfArray<2, int> tensor_dimension7 = { 2, { 1,20 } };
const TfArray<2, int> tensor_dimension8 = { 2, { 1,10 } };
const TfArray<2, int> tensor_dimension9 = { 2, { 1,3 } };
const TfLiteFullyConnectedParams opdata0 = { kTfLiteActRelu, kTfLiteFullyConnectedWeightsFormatDefault, false, false };
const TfArray<3, int> inputs0 = { 3, { 0,6,4 } };
const TfArray<1, int> outputs0 = { 1, { 7 } };
const TfLiteFullyConnectedParams opdata1 = { kTfLiteActRelu, kTfLiteFullyConnectedWeightsFormatDefault, false, false };
const TfArray<3, int> inputs1 = { 3, { 7,2,3 } };
const TfArray<1, int> outputs1 = { 1, { 8 } };
const TfLiteFullyConnectedParams opdata2 = { kTfLiteActNone, kTfLiteFullyConnectedWeightsFormatDefault, false, false };
const TfArray<3, int> inputs2 = { 3, { 8,1,5 } };
const TfArray<1, int> outputs2 = { 1, { 9 } };
const TfLiteSoftmaxParams opdata3 = { 1 };
const TfArray<1, int> inputs3 = { 1, { 9 } };
const TfArray<1, int> outputs3 = { 1, { 10 } };
};

TensorInfo_t tensorData[] = {
{ kTfLiteArenaRw, (int32_t*)(tensor_arena + 0), (TfLiteIntArray*)&g0::tensor_dimension0, 312, },
{ kTfLiteMmapRo, (int32_t*)g0::tensor_data1, (TfLiteIntArray*)&g0::tensor_dimension1, 120, },
{ kTfLiteMmapRo, (int32_t*)g0::tensor_data2, (TfLiteIntArray*)&g0::tensor_dimension2, 800, },
{ kTfLiteMmapRo, (int32_t*)g0::tensor_data3, (TfLiteIntArray*)&g0::tensor_dimension3, 40, },
{ kTfLiteMmapRo, (int32_t*)g0::tensor_data4, (TfLiteIntArray*)&g0::tensor_dimension4, 80, },
{ kTfLiteMmapRo, (int32_t*)g0::tensor_data5, (TfLiteIntArray*)&g0::tensor_dimension5, 12, },
{ kTfLiteMmapRo, (int32_t*)g0::tensor_data6, (TfLiteIntArray*)&g0::tensor_dimension6, 6240, },
{ kTfLiteArenaRw, (int32_t*)(tensor_arena + 320), (TfLiteIntArray*)&g0::tensor_dimension7, 80, },
{ kTfLiteArenaRw, (int32_t*)(tensor_arena + 0), (TfLiteIntArray*)&g0::tensor_dimension8, 40, },
{ kTfLiteArenaRw, (int32_t*)(tensor_arena + 48), (TfLiteIntArray*)&g0::tensor_dimension9, 12, },
{ kTfLiteArenaRw, (int32_t*)(tensor_arena + 0), (TfLiteIntArray*)&g0::tensor_dimension9, 12, },
};

#ifndef TF_LITE_STATIC_MEMORY
TfLiteNode tflNodes[4] = {
{ (TfLiteIntArray*)&g0::inputs0, (TfLiteIntArray*)&g0::outputs0, (TfLiteIntArray*)&g0::inputs0, nullptr, nullptr, const_cast<void*>(static_cast<const void*>(&g0::opdata0)), nullptr, 0, },
{ (TfLiteIntArray*)&g0::inputs1, (TfLiteIntArray*)&g0::outputs1, (TfLiteIntArray*)&g0::inputs1, nullptr, nullptr, const_cast<void*>(static_cast<const void*>(&g0::opdata1)), nullptr, 0, },
{ (TfLiteIntArray*)&g0::inputs2, (TfLiteIntArray*)&g0::outputs2, (TfLiteIntArray*)&g0::inputs2, nullptr, nullptr, const_cast<void*>(static_cast<const void*>(&g0::opdata2)), nullptr, 0, },
{ (TfLiteIntArray*)&g0::inputs3, (TfLiteIntArray*)&g0::outputs3, (TfLiteIntArray*)&g0::inputs3, nullptr, nullptr, const_cast<void*>(static_cast<const void*>(&g0::opdata3)), nullptr, 0, },
};
#else
TfLiteNode tflNodes[4] = {
{ (TfLiteIntArray*)&g0::inputs0, (TfLiteIntArray*)&g0::outputs0, (TfLiteIntArray*)&g0::inputs0, nullptr, const_cast<void*>(static_cast<const void*>(&g0::opdata0)), nullptr, 0, },
{ (TfLiteIntArray*)&g0::inputs1, (TfLiteIntArray*)&g0::outputs1, (TfLiteIntArray*)&g0::inputs1, nullptr, const_cast<void*>(static_cast<const void*>(&g0::opdata1)), nullptr, 0, },
{ (TfLiteIntArray*)&g0::inputs2, (TfLiteIntArray*)&g0::outputs2, (TfLiteIntArray*)&g0::inputs2, nullptr, const_cast<void*>(static_cast<const void*>(&g0::opdata2)), nullptr, 0, },
{ (TfLiteIntArray*)&g0::inputs3, (TfLiteIntArray*)&g0::outputs3, (TfLiteIntArray*)&g0::inputs3, nullptr, const_cast<void*>(static_cast<const void*>(&g0::opdata3)), nullptr, 0, },
};
#endif

used_operators_e used_ops[] =
{OP_FULLY_CONNECTED, OP_FULLY_CONNECTED, OP_FULLY_CONNECTED, OP_SOFTMAX, };


// Indices into tflTensors and tflNodes for subgraphs
const size_t tflTensors_subgraph_index[] = {0, 11, };
const size_t tflNodes_subgraph_index[] = {0, 4, };

// Input/output tensors
static const int in_tensor_indices[] = {
  0, 
};

static const int out_tensor_indices[] = {
  10, 
};


size_t current_subgraph_index = 0;

static void init_tflite_tensor(size_t i, TfLiteTensor *tensor) {
  tensor->type = kTfLiteFloat32;
  tensor->is_variable = false;

#if defined(EI_CLASSIFIER_ALLOCATION_HEAP)
  tensor->allocation_type = tensorData[i].allocation_type;
#else
  tensor->allocation_type = (tensor_arena <= tensorData[i].data && tensorData[i].data < tensor_arena + kTensorArenaSize) ? kTfLiteArenaRw : kTfLiteMmapRo;
#endif
  tensor->bytes = tensorData[i].bytes;
  tensor->dims = tensorData[i].dims;

#if defined(EI_CLASSIFIER_ALLOCATION_HEAP)
  if(tensor->allocation_type == kTfLiteArenaRw){
    uint8_t* start = (uint8_t*) ((uintptr_t)tensorData[i].data + (uintptr_t) tensor_arena);

    tensor->data.data =  start;
  }
  else {
      tensor->data.data = tensorData[i].data;
  }
#else
  tensor->data.data = tensorData[i].data;
#endif // EI_CLASSIFIER_ALLOCATION_HEAP
  tensor->quantization.type = kTfLiteNoQuantization;

}

static void init_tflite_eval_tensor(int i, TfLiteEvalTensor *tensor) {

  tensor->type = kTfLiteFloat32;

  tensor->dims = tensorData[i].dims;

#if defined(EI_CLASSIFIER_ALLOCATION_HEAP)
  auto allocation_type = tensorData[i].allocation_type;
  if(allocation_type == kTfLiteArenaRw) {
    uint8_t* start = (uint8_t*) ((uintptr_t)tensorData[i].data + (uintptr_t) tensor_arena);

    tensor->data.data =  start;
  }
  else {
    tensor->data.data = tensorData[i].data;
  }
#else
  tensor->data.data = tensorData[i].data;
#endif // EI_CLASSIFIER_ALLOCATION_HEAP
}

static void* overflow_buffers[EI_MAX_OVERFLOW_BUFFER_COUNT];
static size_t overflow_buffers_ix = 0;
static void * AllocatePersistentBufferImpl(struct TfLiteContext* ctx,
                                       size_t bytes) {
  void *ptr;
  uint32_t align_bytes = (bytes % 16) ? 16 - (bytes % 16) : 0;

  if (current_location - (bytes + align_bytes) < tensor_boundary) {
    if (overflow_buffers_ix > EI_MAX_OVERFLOW_BUFFER_COUNT - 1) {
      ei_printf("ERR: Failed to allocate persistent buffer of size %d, does not fit in tensor arena and reached EI_MAX_OVERFLOW_BUFFER_COUNT\n",
        (int)bytes);
      return NULL;
    }

    // OK, this will look super weird, but.... we have CMSIS-NN buffers which
    // we cannot calculate beforehand easily.
    ptr = ei_calloc(bytes, 1);
    if (ptr == NULL) {
      ei_printf("ERR: Failed to allocate persistent buffer of size %d\n", (int)bytes);
      return NULL;
    }
    overflow_buffers[overflow_buffers_ix++] = ptr;
    return ptr;
  }

  current_location -= bytes;

  // align to the left aligned boundary of 16 bytes
  current_location -= 15; // for alignment
  current_location += 16 - ((uintptr_t)(current_location) & 15);

  ptr = current_location;
  memset(ptr, 0, bytes);

  return ptr;
}

typedef struct {
  size_t bytes;
  void *ptr;
} scratch_buffer_t;

static scratch_buffer_t scratch_buffers[EI_MAX_SCRATCH_BUFFER_COUNT];
static size_t scratch_buffers_ix = 0;

static TfLiteStatus RequestScratchBufferInArenaImpl(struct TfLiteContext* ctx, size_t bytes,
                                                int* buffer_idx) {
  if (scratch_buffers_ix > EI_MAX_SCRATCH_BUFFER_COUNT - 1) {
    ei_printf("ERR: Failed to allocate scratch buffer of size %d, reached EI_MAX_SCRATCH_BUFFER_COUNT\n",
      (int)bytes);
    return kTfLiteError;
  }

  scratch_buffer_t b;
  b.bytes = bytes;

  b.ptr = AllocatePersistentBufferImpl(ctx, b.bytes);
  if (!b.ptr) {
    ei_printf("ERR: Failed to allocate scratch buffer of size %d\n",
      (int)bytes);
    return kTfLiteError;
  }

  scratch_buffers[scratch_buffers_ix] = b;
  *buffer_idx = scratch_buffers_ix;

  scratch_buffers_ix++;

  return kTfLiteOk;
}

static void* GetScratchBufferImpl(struct TfLiteContext* ctx, int buffer_idx) {
  if (buffer_idx > (int)scratch_buffers_ix) {
    return NULL;
  }
  return scratch_buffers[buffer_idx].ptr;
}

static const uint16_t TENSOR_IX_UNUSED = 0x7FFF;

static void ResetTensors() {
  for (size_t ix = 0; ix < MAX_TFL_TENSOR_COUNT; ix++) {
    tflTensors[ix].index = TENSOR_IX_UNUSED;
  }
  for (size_t ix = 0; ix < MAX_TFL_EVAL_COUNT; ix++) {
    tflEvalTensors[ix].index = TENSOR_IX_UNUSED;
  }
}

static TfLiteTensor* GetTensorImpl(const struct TfLiteContext* context,
                               int tensor_idx) {

  tensor_idx = tflTensors_subgraph_index[current_subgraph_index] + tensor_idx;

  for (size_t ix = 0; ix < MAX_TFL_TENSOR_COUNT; ix++) {
    // already used? OK!
    if (tflTensors[ix].index == tensor_idx) {
      return &tflTensors[ix].tensor;
    }
    // passed all the ones we've used, so end of the list?
    if (tflTensors[ix].index == TENSOR_IX_UNUSED) {
      // init the tensor
      init_tflite_tensor(tensor_idx, &tflTensors[ix].tensor);
      tflTensors[ix].index = tensor_idx;
      return &tflTensors[ix].tensor;
    }
  }

  ei_printf("ERR: GetTensor called beyond MAX_TFL_TENSOR_COUNT (%d)\n", MAX_TFL_TENSOR_COUNT);
  return nullptr;
}

static TfLiteEvalTensor* GetEvalTensorImpl(const struct TfLiteContext* context,
                                       int tensor_idx) {

  tensor_idx = tflTensors_subgraph_index[current_subgraph_index] + tensor_idx;

  for (size_t ix = 0; ix < MAX_TFL_EVAL_COUNT; ix++) {
    // already used? OK!
    if (tflEvalTensors[ix].index == tensor_idx) {
      return &tflEvalTensors[ix].tensor;
    }
    // passed all the ones we've used, so end of the list?
    if (tflEvalTensors[ix].index == TENSOR_IX_UNUSED) {
      // init the tensor
      init_tflite_eval_tensor(tensor_idx, &tflEvalTensors[ix].tensor);
      tflEvalTensors[ix].index = tensor_idx;
      return &tflEvalTensors[ix].tensor;
    }
  }

  ei_printf("ERR: GetTensor called beyond MAX_TFL_EVAL_COUNT (%d)\n", (int)MAX_TFL_EVAL_COUNT);
  return nullptr;
}

class EonMicroContext : public MicroContext {
 public:
 
  EonMicroContext(): MicroContext(nullptr, nullptr, nullptr) { }

  void* AllocatePersistentBuffer(size_t bytes) {
    return AllocatePersistentBufferImpl(nullptr, bytes);
  }

  TfLiteStatus RequestScratchBufferInArena(size_t bytes,
                                           int* buffer_index) {
  return RequestScratchBufferInArenaImpl(nullptr, bytes, buffer_index);
  }

  void* GetScratchBuffer(int buffer_index) {
    return GetScratchBufferImpl(nullptr, buffer_index);
  }
 
  TfLiteTensor* AllocateTempTfLiteTensor(int tensor_index) {
    return GetTensorImpl(nullptr, tensor_index);
  }

  void DeallocateTempTfLiteTensor(TfLiteTensor* tensor) {
    return;
  }

  bool IsAllTempTfLiteTensorDeallocated() {
    return true;
  }

  TfLiteEvalTensor* GetEvalTensor(int tensor_index) {
    return GetEvalTensorImpl(nullptr, tensor_index);
  }

};


} // namespace

TfLiteStatus tflite_learn_1034552_8_init( void*(*alloc_fnc)(size_t,size_t) ) {
#ifdef EI_CLASSIFIER_ALLOCATION_HEAP
  tensor_arena = (uint8_t*) alloc_fnc(16, kTensorArenaSize);
  if (!tensor_arena) {
    ei_printf("ERR: failed to allocate tensor arena\n");
    return kTfLiteError;
  }
#else
  memset(tensor_arena, 0, kTensorArenaSize);
#endif
  tensor_boundary = tensor_arena;
  current_location = tensor_arena + kTensorArenaSize;

  EonMicroContext micro_context_;
  
  // Set microcontext as the context ptr
  ctx.impl_ = static_cast<void*>(&micro_context_);
  // Setup tflitecontext functions
  ctx.AllocatePersistentBuffer = &AllocatePersistentBufferImpl;
  ctx.RequestScratchBufferInArena = &RequestScratchBufferInArenaImpl;
  ctx.GetScratchBuffer = &GetScratchBufferImpl;
  ctx.GetTensor = &GetTensorImpl;
  ctx.GetEvalTensor = &GetEvalTensorImpl;
  ctx.ReportError = &MicroContextReportOpError;

  ctx.tensors_size = 11;
  for (size_t i = 0; i < 11; ++i) {
    TfLiteTensor tensor;
    init_tflite_tensor(i, &tensor);
    if (tensor.allocation_type == kTfLiteArenaRw) {
      auto data_end_ptr = (uint8_t*)tensor.data.data + tensorData[i].bytes;
      if (data_end_ptr > tensor_boundary) {
        tensor_boundary = data_end_ptr;
      }
    }
  }

  if (tensor_boundary > current_location /* end of arena size */) {
    ei_printf("ERR: tensor arena is too small, does not fit model - even without scratch buffers\n");
    return kTfLiteError;
  }

  registrations[OP_FULLY_CONNECTED] = Register_FULLY_CONNECTED();
  registrations[OP_SOFTMAX] = Register_SOFTMAX();

  for (size_t g = 0; g < 1; ++g) {
    current_subgraph_index = g;
    for(size_t i = tflNodes_subgraph_index[g]; i < tflNodes_subgraph_index[g+1]; ++i) {
      if (registrations[used_ops[i]].init) {
        tflNodes[i].user_data = registrations[used_ops[i]].init(&ctx, (const char*)tflNodes[i].builtin_data, 0);
      }
    }
  }
  current_subgraph_index = 0;

  for(size_t g = 0; g < 1; ++g) {
    current_subgraph_index = g;
    for(size_t i = tflNodes_subgraph_index[g]; i < tflNodes_subgraph_index[g+1]; ++i) {
      if (registrations[used_ops[i]].prepare) {
        ResetTensors();
        TfLiteStatus status = registrations[used_ops[i]].prepare(&ctx, &tflNodes[i]);
        if (status != kTfLiteOk) {
          return status;
        }
      }
    }
  }
  current_subgraph_index = 0;

  return kTfLiteOk;
}

TfLiteStatus tflite_learn_1034552_8_input(int index, TfLiteTensor *tensor) {
  init_tflite_tensor(in_tensor_indices[index], tensor);
  return kTfLiteOk;
}

TfLiteStatus tflite_learn_1034552_8_output(int index, TfLiteTensor *tensor) {
  init_tflite_tensor(out_tensor_indices[index], tensor);
  return kTfLiteOk;
}

TfLiteStatus tflite_learn_1034552_8_invoke() {
  for (size_t i = 0; i < 4; ++i) {
    ResetTensors();

    TfLiteStatus status = registrations[used_ops[i]].invoke(&ctx, &tflNodes[i]);

#if EI_CLASSIFIER_PRINT_STATE
    ei_printf("layer %lu\n", i);
    ei_printf("    inputs:\n");
    for (size_t ix = 0; ix < tflNodes[i].inputs->size; ix++) {
      auto d = tensorData[tflNodes[i].inputs->data[ix]];

      size_t data_ptr = (size_t)d.data;

      if (d.allocation_type == kTfLiteArenaRw) {
        data_ptr = (size_t)tensor_arena + data_ptr;
      }

      if (d.type == TfLiteType::kTfLiteInt8) {
        int8_t* data = (int8_t*)data_ptr;
        ei_printf("        %lu (%zu bytes, ptr=%p, alloc_type=%d, type=%d): ", ix, d.bytes, data, (int)d.allocation_type, (int)d.type);
        for (size_t jx = 0; jx < d.bytes; jx++) {
          ei_printf("%d ", data[jx]);
        }
      }
      else {
        float* data = (float*)data_ptr;
        ei_printf("        %lu (%zu bytes, ptr=%p, alloc_type=%d, type=%d): ", ix, d.bytes, data, (int)d.allocation_type, (int)d.type);
        for (size_t jx = 0; jx < d.bytes / 4; jx++) {
          ei_printf("%f ", data[jx]);
        }
      }
      ei_printf("\n");
    }
    ei_printf("\n");

    ei_printf("    outputs:\n");
    for (size_t ix = 0; ix < tflNodes[i].outputs->size; ix++) {
      auto d = tensorData[tflNodes[i].outputs->data[ix]];

      size_t data_ptr = (size_t)d.data;

      if (d.allocation_type == kTfLiteArenaRw) {
        data_ptr = (size_t)tensor_arena + data_ptr;
      }

      if (d.type == TfLiteType::kTfLiteInt8) {
        int8_t* data = (int8_t*)data_ptr;
        ei_printf("        %lu (%zu bytes, ptr=%p, alloc_type=%d, type=%d): ", ix, d.bytes, data, (int)d.allocation_type, (int)d.type);
        for (size_t jx = 0; jx < d.bytes; jx++) {
          ei_printf("%d ", data[jx]);
        }
      }
      else {
        float* data = (float*)data_ptr;
        ei_printf("        %lu (%zu bytes, ptr=%p, alloc_type=%d, type=%d): ", ix, d.bytes, data, (int)d.allocation_type, (int)d.type);
        for (size_t jx = 0; jx < d.bytes / 4; jx++) {
          ei_printf("%f ", data[jx]);
        }
      }
      ei_printf("\n");
    }
    ei_printf("\n");
#endif // EI_CLASSIFIER_PRINT_STATE

    if (status != kTfLiteOk) {
      return status;
    }
  }
  return kTfLiteOk;
}

TfLiteStatus tflite_learn_1034552_8_reset( void (*free_fnc)(void* ptr) ) {
#ifdef EI_CLASSIFIER_ALLOCATION_HEAP
  free_fnc(tensor_arena);
#endif

  // scratch buffers are allocated within the arena, so just reset the counter so memory can be reused
  scratch_buffers_ix = 0;

  // overflow buffers are on the heap, so free them first
  for (size_t ix = 0; ix < overflow_buffers_ix; ix++) {
    ei_free(overflow_buffers[ix]);
  }
  overflow_buffers_ix = 0;
  return kTfLiteOk;
}
